{"feature_names": ["ask_count", "mentions_laptop", "mentions_mobile", "mentions_accessory", "current_product_laptop", "current_product_mobile", "current_product_accessory", "cart_items_count", "saved_items_count", "recent_paid_items_count", "avg_phrase_len", "english_ratio"], "service_names": ["laptop", "mobile", "accessory"], "model": {"w1": [[0.041828039537365136, -0.1424967734331999, -0.06749120448926423, -0.08303677855535317, 0.07094136424920372, 0.05300984622687338, 0.1176538703114536, -0.12391835021117514, -0.023423454094418872, -0.1410608341685789, -0.08440860755891899, 0.001606586431008722, -0.1420392090948409, -0.09034870479400545, 0.04496533133385697, 0.013482444180965003, -0.083867813387791, 0.026779705162772616], [0.092829137003348, -0.1480503720965817, 0.09174577554984237, 0.05944181849646807, -0.04792484504460244, -0.10335615005646553, 0.13716392166203437, -0.049021636466211965, -0.12217624698595562, -0.1209850869499608, 0.10424830990423792, 0.03111780941006731, 0.09213848198231406, 0.06891953600814538, 0.010868427436410227, 0.1419347291938112, -0.03643968683749396, 0.015612189381968095], [0.09882139927589845, 0.03555592570927382, 0.10851207009323319, 0.023205643577028617, 0.06137155086447704, -0.13625268490330134, -0.08163051730453594, -0.06318361091936785, -0.12606240692291173, -0.08016273409169095, -0.11969957117708126, -0.06660791906697236, 0.04070533327932005, -0.04055034630897472, -0.0389457098649352, -0.08714789076855368, -0.06990665338526598, 0.1309963763137482], [0.044410615573978074, 0.03273930170009645, -0.0986584055405709, 0.06873803938510475, -0.10097925187142148, -0.03616336747270567, 0.14685700519097858, 0.04199992795622787, 0.017084923132393876, 0.05538427529696238, 0.10285557605694287, 0.08279997346387344, -0.08128557841076868, -0.14036992682878865, -0.055364085582275416, -0.06967773720728918, -0.08670514692410206, 0.13287291430051631], [0.11291028794180066, -0.05559663576045662, 0.04663159958846402, -0.03131042968180073, 0.12436427692216304, -0.012344444223780365, -0.07053595005058426, -0.07601174769180497, 0.018410440248945226, -0.07117751744311941, 0.025375797067062167, 0.11934686508074308, -0.030179848457880826, -0.084203772252815, 0.14926128194853308, 0.0028578881029393544, -0.12272717634786183, -0.13586508737257963], [-0.11710526089480225, 0.038233812510927, 0.08762380930888922, -0.02335200996009479, -0.13094168815441284, -0.03551421404803898, 0.14883641407202905, 0.008734303529741111, 0.14132351328408546, 0.1082339106703494, -0.1465556934171541, 0.06621654580805839, 0.054513110707972434, 0.011091099122638559, -0.06995244301423716, 0.04228853957394241, -0.11653434792123707, -0.019570424799268515], [-0.013882888101238056, 0.136144778256324, 0.11275588211345819, -0.07098328477467276, 0.00017583391508949053, -0.09640443584096059, 0.12378835180344613, 0.11115557095103004, -0.06046656256541012, 0.041684848459801555, 0.0326910634314517, -0.10414821943510955, 0.07875324002254538, 0.011813709035887715, 0.08358794358916746, 0.009106101658553245, -0.14982843116161695, -0.05275318289859807], [-0.1441569772842503, 0.1287295848793851, 0.11361656334695527, 0.09949965880835382, -0.057745762379201565, -0.13262245005174372, 0.11340287976121213, 0.13408483358939824, -0.12430396437963637, -0.004202861005015879, -0.12923624445948492, 0.07818064957716947, 0.07975032879209631, -0.11148256065007116, -0.007415286570380597, 0.014941078048483158, -0.07048301131798226, 0.11172991232557725], [-0.023058617939733933, -0.08646053836737538, 0.011788826633837513, 0.06897932072699287, -0.08965468098309123, -0.056485112609731505, 0.1485448069982684, 0.04496341729183606, -0.01856997482564879, 0.005272752310677198, -0.11369874123952028, -0.0825907988905328, -0.0485743313557634, 0.02649261553717, -0.0809655802210269, -0.08393478466453215, -0.12870207419729024, 0.03933088718102967], [-0.08131746485665368, 0.12162600390183839, 0.10789062007612396, -0.12874279503340397, -0.07859860968930144, 0.05069333348888416, -0.08572895778886842, -0.1103064453824925, 0.1306542721742013, 0.02131292799758533, -0.008198692106461763, 0.08538582728722602, 0.092249099329993, -0.09287702569143669, -0.120920755731353, -0.02068464527808675, -0.022926413094023768, -0.00989259958899752], [0.06872275483795517, 0.05200936418799046, 0.1452495634097898, -0.12047463865441232, -0.029213615369319365, -0.04820921838151106, 0.10850176090583732, -0.07540309982391431, -0.09293732746775654, -0.015415935650060442, -0.023435508049678755, -0.06643645659991786, -0.07505806563536985, 0.12697967978280386, -0.017060776483962925, 0.10840473142854914, 0.015097593734954423, -0.13482350114253563], [0.149784740523818, 0.10080827552398555, 0.14069887718542537, 0.1279100949024383, 0.10460872032429161, -0.1001066668188258, -0.00430766236478447, -0.0858758102402455, -0.02968791223516422, -0.13240938000834632, -0.03630806430692517, 0.14559265313391775, -0.07043908254835442, 0.08522118058457082, -0.013497489798257017, -0.023097754202951126, 0.13719529225790197, 0.14862680684781412]], "b1": [0.0, 0.0, 0.0, 0.0, 0.0, 0.0, 0.0, 0.0, 0.0, 0.0, 0.0, 0.0, 0.0, 0.0, 0.0, 0.0, 0.0, 0.0], "w2": [[0.01673049702168547, 0.06552248258889781, -0.10356095241778077, -0.06098765235163074, 0.14061280949074764, 0.023754087244876876, 0.012658560412282277, 0.07439266811371922, -0.13285041812775508, 0.025253278337691365], [0.0008551148758540739, 0.10581596761448561, -0.10277018161815502, 0.1382336709823351, -0.12596656042782392, -0.09425251170578303, 0.0285105319350083, 0.05256376608122704, -0.07943883149972064, -0.11403401581586274], [0.11708619423883124, -0.07613539566341254, 0.028355746060032355, 0.03581445309963094, -0.02423252539923826, 0.025101686787367405, 0.006834814659587657, 0.13041187732092815, -0.08872224017293906, 0.06485754023682444], [-0.07839421421524619, -0.031264245962623644, 0.05150706688799139, -0.06000087606037133, -0.055146841118443785, 0.07555934772432063, -0.1282370656520528, -0.012514343214424156, 0.1495363322563327, 0.1488289343565283], [-0.1280217836701101, -0.08605370631988787, -0.07043987557487959, 0.12997781339811273, 0.11425925210593188, 0.11378107274536284, -0.039141873378334816, -0.10267595029283041, 0.1001234863919421, 0.061061977526211286], [0.033503329717785024, 0.1461699190894513, 0.046192895313219795, -0.14765306785435262, 0.09513124053463848, -0.060186374340006635, 0.049016614489823196, 0.13167900117813117, -0.10971266568198967, -0.11537139887426934], [-0.1178892066871747, 0.015967092265444766, -0.0682955363055551, 0.031448948109067176, 0.06528365614163939, -0.08892080630176412, 0.040271387665523906, -0.07080482951087717, -0.0034404443551870334, 0.12160094732379698], [0.10383111398845665, -0.12231045968617997, -0.022927268230882092, -0.0669959328083245, -0.1489362932736653, 0.08133576690588812, 0.041134013190413876, -0.07141342126969553, 0.07236927250437925, 0.015504126337917368], [-0.021693924305796197, -0.147099090117498, -0.12742684197786988, 0.1149319179900429, 0.12117857146796793, 0.013677086761656687, 0.10037850596580503, 0.024752869946938205, -0.10557186432975521, -0.11176634421535836], [-0.05752249502095989, 0.11969444662277698, 0.08883669146641252, 0.10821077460027081, 0.11967739095794236, -0.08697703849807378, -0.07514107823312267, -0.1191619134984643, 0.0840348725614328, 0.11524041043530267], [-0.028086783050364966, 0.03619845304521385, -0.10363399850033861, 0.1289643047081023, 0.10938170886598916, 0.14286180987928884, 0.09323151598211907, 0.1144248613989973, -0.14256409143054338, 0.07096934152652462], [-0.050344359616071394, 0.12924476581449765, 0.09067054168114166, 0.10921920851258379, 0.0932247949723167, -0.06995828712165839, 0.08621235274064135, -0.11757131207911287, 0.11165003487182693, 0.10757797540133449], [-0.08326988473630066, 0.0949759816790787, -0.011909029596317372, -0.058442739798419824, 0.08860364974585852, -0.08172135377766888, -0.14290066958956454, -0.0920610635016874, -0.051521414640688046, 0.10930588260908589], [0.14006673121450833, -0.06626250218343857, 0.042444521582288314, -0.030096484691981742, 0.144344906159478, 0.01086471974361658, 0.13177114209741472, -0.11539747444457171, 0.1411201833066684, -0.0964296551482609], [0.13876029472846665, -0.07036009124310941, -0.11747923583558667, -0.019630872430606683, 0.0685635181958113, -0.05589680574150263, 0.031862655991842986, 0.003426917900843429, -0.034441369996581844, 0.02297641304897985], [-0.07358324815842542, 0.0626355851502512, -0.14949261653441115, 0.12767254964972483, 0.011535599127837581, 0.06582899974345366, 0.07258502335184297, 0.051188551329899856, -0.04073355846562074, -0.12900785666210693], [0.04927130547338171, -0.05093998918722108, -0.05582530648249209, 0.10440458385190063, 0.06592627890418506, -0.059903319536620744, -0.057214601337404025, -0.027482127414234947, -0.029279883882682614, -0.06130343924221589], [-0.11181366028225403, -0.023866099868127516, 0.13210910121905492, 0.05319538358181988, 0.12084166371977481, 0.03465447478541417, -0.0597150376303304, 0.014381163940709457, -0.14987821809081373, -0.06392588493932184]], "b2": [0.0, 0.0, 0.0, 0.0, 0.0, 0.0, 0.0, 0.0, 0.0, 0.0], "w3": [[-0.021033555003049625, 0.023995434358704604, 0.046411687110921473, -0.010503542925895726], [-0.017352060208557785, -0.08588957970326991, -0.008044144227202121, 0.12035424774847628], [0.08880742803803407, -0.09909258114058359, -0.12456133898246347, 0.004635602974564945], [0.03988225672973872, -0.04944352337705972, 0.09552703936099927, 0.07534144126221967], [0.051838701167150114, -0.08260780020081351, -0.090261020182027, -0.1426723836819521], [-0.07654723677649496, -0.007459096734358461, 0.10492130838741956, -0.12815153124462927], [-0.025667696700684195, 0.03892961422131411, -0.0916694289780872, 0.058906275147151466], [-0.0016868492968689086, -0.07680466812646834, 0.046817403333535235, -0.14833655455859046], [0.07528934298554185, 0.08101385657220753, -0.11802381103093831, -0.022456141817179753], [-0.0972339954880405, 0.13738981268386194, 0.005387325133122234, -0.13493448445780773]], "b3": [0.0, 0.0, 0.0, 0.0]}, "metrics": {"loss": null, "samples": 0}, "version": 1}